{"weights":[{"row":7,"column":8,"elements":[-0.6031596056065406,0.306669682264328,-0.44958753802062648,-0.5865652652392335,0.5688235759735107,0.7944112240220655,0.0704683821912866,0.3804777264595032,-0.6639721471034434,-0.6761131498232906,0.8188419733437726,0.8734342804275883,1.3357611250033728,0.0029981557381235648,0.5558240559606027,0.1445268753277702,-0.48339452765728199,0.8083989024162293,0.29779499575028725,0.12499110184209172,-0.267966649780929,0.3361985148537805,-0.09682811267038272,-0.5163943055485945,0.8918120265007019,0.9813158599956928,-0.5701040718004902,-0.4690037409477057,0.12172040670456852,-0.8095154080672948,-0.2052592831611637,0.9151006799546835,0.4381010503044427,-0.7756037279796111,0.8011055904673512,0.11462557315826416,0.022225917973008437,0.3605427905096441,0.3793493711059064,1.0125363583169858,0.2544460287997552,0.6226978302001953,0.9321557781930672,0.23318588733673097,-0.24887825824746913,1.013473912017453,1.891062779710568,-0.4687226481006421,-0.32527369334554026,-0.2929997444152832,-0.23246482248986134,-0.3328227073321788,-0.3245810987960347,-0.13958281029219658,-0.1243136438496446,0.5756183073270361]},{"row":8,"column":4,"elements":[-1.0117093830642672,0.6840784549713135,-0.6379443866037162,0.343859790216019,-0.23869464642424277,0.7599197428924072,-0.8555185369252101,1.020282480711117,0.06440902578210839,-0.5636246659382156,0.48389925824903648,-0.48713759185775987,-0.14240403411233905,0.05098649850761916,-0.13910898270271589,0.09444085318205886,0.4178398226389328,0.7949652609421598,-0.1266967522265503,-0.6403751586584292,0.32536694407463076,-0.04825641100512623,-0.16348277386786859,0.021503718979974719,0.2810721695423126,1.1110796748302363,-0.8647663372658547,-0.8736505487526127,-0.41782890343405656,0.4563527357316737,-0.2454874813892225,-0.5090942978858948]}],"biases":[{"row":1,"column":8,"elements":[0.5499217350005838,0.41361161736192378,0.5252691453609071,0.4922505850524459,-0.3278561409444354,-0.07268059253692627,-0.9786988533736389,-0.680649811183855]},{"row":1,"column":4,"elements":[0.6200475662700855,-0.05572211742401123,-0.8266031422814715,0.8851080417149726]}],"inputSize":7,"hiddenSize":8,"hiddenLayers":1,"outputSize":4}