{"weights":[{"row":11,"column":8,"elements":[0.2140777588164089,0.487665352780578,-0.23549078145288195,0.1979064639328062,-0.561761994544435,0.06660680570151406,0.7851930665389348,-0.18283909959744228,0.3730187101867277,0.12874222156050586,2.508875521834136,-0.26303259904709988,-1.3267641619374518,-0.032325959874385527,0.580723171348756,0.14253148781775594,0.08718733697862047,0.7615265846252441,-0.2935655169010125,-0.04078555788634497,1.016381324282162,0.6759304270511729,0.5611586192586067,-0.3027723163839191,0.9564594626426697,-0.550474676425193,-0.48001498761319696,0.9699466228485107,1.299798356976443,0.9190639282574966,0.6588550257188768,-1.406990162105767,-0.009042380377650261,0.45502211115080196,-1.4211155888678909,0.40432878727666568,0.3218101223754223,0.6972525751014957,0.35629966073603366,-0.8103644233473544,-0.5752643942832947,0.39000686506662288,0.7018467579655754,-0.11835844073299051,-0.9052133653156425,-0.2630635561389283,-0.9837516144051394,0.7632333802199605,0.8930642118245149,0.39623215262749075,0.6435216069221497,0.38717503986748938,-0.16465819815646344,-0.43830605439897676,-0.5990061343237478,0.9511268957067638,-0.3095868483324886,-0.0077263447345551909,-0.9826274840919345,-0.8023808918409662,0.9408193454607603,0.22755401014385769,0.5619196854472568,0.5798791869457526,0.6096579515021308,-0.32122640025037799,-0.12754513081711434,0.4708330912187719,0.7509521143661559,0.6475491415363017,0.01056262943893671,-0.046797063606942138,-0.23055988867234057,0.0522173311437486,-0.5803950116176466,0.09614129672683436,0.2372994893507382,-0.0929819792509079,0.9647177582247037,2.4782563055044588,-0.1881846866940231,0.4999417947311682,-0.595500474660628,-0.2808152986242085,-0.4085945289165309,1.0099365074969012,1.0504034715586495,-0.617387690956539]},{"row":8,"column":4,"elements":[-1.0616116505660583,-0.9639022097154042,0.34546388409053288,-0.05990523938566597,0.24536957883185196,-2.057446108446233,0.3288102721824644,0.14288548806003577,1.11803138256073,-0.9894501725092195,-0.8264550414537887,-1.9483419357913597,-0.516667228517119,0.25534083849252928,-0.2802322062824718,-2.165102244812678,-1.3548064870521115,-1.1382708357716105,-0.8979055760648722,0.7662302831498489,-0.6185176649412353,0.6620377179721348,-1.196922437524409,-0.19305013120174409,0.6463052517605417,-0.8230984910683207,0.7191650277498507,-0.4828712347175881,0.20587667053407195,-0.8006390213296299,-0.6365453549775869,0.4985556162141067]}],"biases":[{"row":1,"column":8,"elements":[2.2712032231688328,0.3712574736022693,0.7505828514486808,-1.17488805654056,0.28822399759369746,0.3684789528299544,-0.25629729531111247,0.8313977766275411]},{"row":1,"column":4,"elements":[-0.4923257037441615,0.2289353907108307,-0.6921050749671718,-2.1324420139575555]}],"inputSize":11,"hiddenSize":8,"hiddenLayers":1,"outputSize":4}