{"weights":[{"row":7,"column":8,"elements":[-0.3303069311488003,-0.2190977335236982,-0.7075393028892969,-1.8120753706904447,0.18394639290153015,0.9469299137034599,0.48156327805044976,0.5198590429090682,-0.17623820263806179,-0.7301791718348407,-1.4437068700790406,-0.9594717556895411,-0.33054070251841419,0.3481437434972939,0.14912968280192152,1.7158057751368355,-0.9223027693008117,-0.5234171928041129,1.2944032605811578,0.48647451522335496,2.0041885583245588,0.4101559170576601,0.5132247215612118,0.11023549259403956,0.1819151103624702,0.45643788896259088,0.0655846468828789,1.4512543239925094,0.8993060043481775,-1.4950367760736967,0.10268896132619365,-2.1183380501752548,1.579185128211975,-1.4574128447019697,-0.3881810297594611,-0.8991335507134322,0.27255845039745588,-0.17502248574600982,0.8631636250089132,0.3877133341835217,0.7691040489447141,0.5429529833438052,0.29108415418123548,-0.15788801444730383,0.6374366541330464,-0.5372979459077574,0.028767404926788755,0.8734677791476315,0.0031120321639557249,0.9097667920084047,1.1318411269844462,1.1105915935075229,-0.5371226470274573,-0.22940205249262964,0.31540435118703416,-0.5881211624716096]},{"row":8,"column":4,"elements":[-0.9833168497041724,1.7449722873380314,0.7845871621335605,0.10587974186744975,0.4499822553696864,0.7228948277169378,2.5891427284510208,-1.4381428091509739,0.6291053313239206,0.7305610174625631,0.3893387465023922,0.1680021818881854,-1.034744866545419,1.7472585834858619,-0.027361282583127867,0.3033956986557964,-0.7370277430309212,0.7744066236783261,-1.1232629997805362,-0.7718513125074953,1.1365987384035113,-0.018582562345240917,0.643152008158748,-0.16194205830156872,-1.3533416136283672,-0.1196418852986917,-0.5885123237224308,-0.6119806048978683,-0.5433894395828247,0.06585114558157113,-0.2776477025715176,1.2744226197370663]}],"biases":[{"row":1,"column":8,"elements":[0.9895606666285381,0.20897886332676647,0.5893361982379677,0.047884080559015277,-0.17651298749888445,-0.6359013718219404,-1.2353070371585134,0.7109520675531649]},{"row":1,"column":4,"elements":[1.172044318944946,0.7130143722272877,-1.0535119567888394,-1.1775860527194837]}],"inputSize":7,"hiddenSize":8,"hiddenLayers":1,"outputSize":4}