{"weights":[{"row":7,"column":8,"elements":[0.15074173431034899,0.2017867567338527,0.18792670689727743,0.25340050928891247,-1.211327586162767,-0.36124956477094019,-0.665674580106395,-0.7372238567981562,0.8201713122963859,0.9839478386459426,0.051008280485191907,-0.6660552041792929,-0.6850753612634282,0.5454399579035858,-0.5893757874925214,-0.8480924009384046,-0.05763306663817147,-0.005406645917453545,-0.5260543580076185,-0.15200680845136817,0.6106101887036313,0.29834464040452959,-0.7118371082952368,-0.45953071117401125,0.8700871324540472,0.32261946857238757,0.6216976037949045,-0.23170919738834518,0.08152089725088629,-0.2255783368327684,0.1545277072762925,-0.2332403606480682,-0.35644759932050809,-0.05671572713060957,0.07157378951259475,-0.6029026508331299,0.8878955602905192,-0.5964352998730576,-0.881961371311152,0.894886314868927,-0.4943053122801178,0.2540979154046852,0.9437356274997057,-0.5533157312094608,0.0167493583003262,0.1093675463661512,0.7740637338765275,-0.18238608512071687,-0.08188301887709315,0.597417555966663,-0.004094756408488109,-0.32785060961739989,0.248503681508339,-0.08415740968001373,0.5460880396831023,0.6105654239654541]},{"row":8,"column":4,"elements":[-0.6061930308254722,0.7445120343493987,-0.37278572549969316,0.013479726838144579,0.2715450720958801,-0.5576517025481333,-0.5305316371497,0.48953366148727719,0.6504250735986172,-0.7948737478616046,0.7360185303344586,0.21922444938584818,-0.42315098399157238,0.23529726254253914,-0.5126872016573643,0.0640210294098118,-0.7558122873306274,-0.575470030015353,-0.6767204404491318,1.0700205574262439,1.2641493082046509,-0.06301562660312854,-0.47933012788687359,0.23324348560237186,0.16385206084764593,0.4200086731204671,0.6582051850320436,-0.2663713269797725,-0.45873744517453476,-0.31628714062190257,0.8774757059074645,-0.19860027016137495]}],"biases":[{"row":1,"column":8,"elements":[0.5733848857847264,-0.295613878200939,-0.9003657088711892,-0.3486740967899564,0.08768587826085339,0.6501747625890815,0.7589186670529129,0.824735088352682]},{"row":1,"column":4,"elements":[0.2029830227395113,0.24555436344586213,0.419200541052831,-0.2332716065909608]}],"inputSize":7,"hiddenSize":8,"hiddenLayers":1,"outputSize":4}